svm_type c_svc
kernel_type rbf
gamma 0.5
nr_class 2
total_sv 569
rho 0.406536
label 1 2
probA -2.31094
probB 0.0373788
nr_sv 250 319
SV
1.849510532708266 1:0.61818 11:0.545453 82:0.378788 88:0.545455 
2 1:0.392309 3:0.38462 15:0.250003 24:0.500007 55:0.282054 76:0.0859727 78:0.19231 80:0.36539 105:0.141027 120:0.211541 130:0.36539 149:0.461546 
1.834493009820722 15:0.433336 18:0.66667 57:0.333335 76:0.0745102 77:0.719999 87:0.479998 88:0.399999 
1.815030244638737 15:0.650001 18:1 53:0.333333 57:0.5 91:1 144:0.566665 
2 1:0.130771 5:0.346158 8:0.160258 44:0.461537 48:0.807696 50:0.269234 78:0.19231 80:0.36539 84:0.307696 85:0.25641 120:0.211541 159:0.288466 
2 4:0.45455 44:0.272729 52:0.409095 56:0.272729 68:0.45455 74:0.131819 76:0.0508026 81:0.250003 86:0.159093 128:0.386368 149:0.545462 
2 1:0.130771 5:0.346158 8:0.320513 69:0.461546 74:0.11154 76:0.0429869 82:0.320513 85:0.128207 87:0.138463 88:0.115386 
0.9415123497303001 24:0.481481 30:0.407407 32:0.407407 68:0.37037 76:0.124183 77:0.133333 78:0.37037 87:0.133333 90:0.240741 113:0.37037 119:0.148148 120:0.407407 123:0.333333 124:0.166666 131:0.407407 
1.354798068158775 38:1 76:0.111765 78:0.25 80:0.475001 120:0.275 159:0.375001 160:0.366667 
1.766558105594849 1:0.200001 7:0.470592 8:0.2451 74:0.341176 77:0.423529 82:0.490196 87:0.423529 157:0.411768 
0.1918991110555786 1:0.200001 8:0.980392 77:0.211766 82:0.735296 112:1 
0.3288263872528961 1:0.2125 5:0.562501 56:0.374999 74:0.18125 76:0.279412 77:0.225 78:0.3125 
2 7:0.347824 48:0.304346 58:0.478258 59:0.260867 68:0.43478 85:0.144927 108:0.188405 142:0.478258 149:0.521738 
2 38:0.58824 79:0.666665 87:0.423529 
2 8:0.154321 17:0.444446 53:0.123457 76:0.0413943 78:0.185185 82:0.154321 83:0.333333 84:0.296296 85:0.123457 88:0.111111 149:0.444446 
1.737609651736908 9:0.379313 17:0.413798 53:0.114943 68:0.34483 76:0.0385398 78:0.172415 83:0.310347 84:0.275864 91:0.34483 96:0.34483 130:0.327589 138:0.379313 145:0.413798 149:0.413798 159:0.258623 
0.4300515177587518 8:0.2193 74:0.152633 76:0.176471 78:0.26316 79:0.298247 80:1 87:0.378946 88:0.157896 92:0.26316 120:0.289476 145:0.631587 157:0.368424 
1.024826237369208 57:0.555555 90:0.361114 117:0.333335 121:0.18889 124:0.166666 136:0.55556 140:0.55556 
0.3198107912754006 1:0.130771 5:0.346158 10:0.11154 36:0.423082 48:0.269234 57:0.384615 78:0.19231 85:0.128207 89:0.134617 111:0.230772 112:0.326927 119:0.153848 121:0.130771 123:0.692308 125:0.211541 138:0.423082 
0.5768276353555083 76:0.0745102 100:0.466669 107:0.66667 109:0.266668 122:0.733338 123:0.600004 124:0.1 155:0.56667 157:0.466669 
1.201575751107491 37:0.733338 78:0.333335 100:0.933332 110:0.733338 112:0.56667 119:0.266668 120:0.366669 124:0.1 143:0.466669 
2 5:0.391302 53:0.144927 57:0.21739 65:0.152173 75:0.282607 88:0.130434 89:0.152173 115:0.126086 120:0.239129 121:0.147825 125:0.239129 136:0.43478 143:0.304346 149:0.521738 
2 7:0.571432 89:0.250002 124:0.107143 152:0.464289 
0.2312462585290781 8:0.347221 50:0.291669 52:0.375003 81:0.229169 82:0.347221 87:0.150001 111:0.250001 117:0.250001 124:0.375 
2 8:0.347221 42:0.41667 50:0.291669 57:0.208335 81:0.229169 82:0.347221 87:0.150001 111:0.250001 124:0.375 
0.104434256442549 6:0.880001 8:0.833333 64:0.28 74:0.232 76:0.0894117 82:0.666667 86:0.28 87:0.144 88:0.36 
1.499742369765903 1:0.30909 4:0.45455 8:0.189396 10:0.263636 39:0.45455 59:0.272729 74:0.263636 77:0.163638 82:0.378788 85:0.151517 93:0.45455 112:0.386368 120:0.250003 121:0.154547 123:0.409095 145:0.545462 164:0.18182 
1.615377315167441 46:0.464289 71:0.607147 101:0.607147 136:0.71429 143:0.500004 152:0.464289 
0.3499857219451905 17:0.521738 76:0.0485931 77:0.626086 82:0.724638 127:0.0942024 158:0.0807448 164:0.173912 
0.4496626147254992 8:0.378788 72:0.772727 74:0.263636 77:0.327272 82:0.378788 89:0.318182 119:0.363636 120:0.5 136:0.90909 
1.201981926921536 1:0.468965 10:1 115:1 124:0.258621 
0.6610248985516597 1:0.468965 74:1 76:0.192698 
2 42:0.86957 53:0.289857 79:0.492755 87:0.313045 102:0.956528 152:0.565221 
2 1:0.125926 3:0.37037 25:0.444446 28:0.37037 31:0.444446 53:0.123457 54:0.240741 59:0.222222 87:0.133333 90:0.240741 111:0.222222 132:0.277778 153:0.407407 
2 5:0.45 6:0.550001 51:0.25 62:0.236364 64:0.35 69:0.600002 82:0.208333 83:0.45 85:0.166667 86:0.35 88:0.15 
2 5:0.473688 69:0.631587 76:0.058824 77:0.378946 82:0.2193 85:0.17544 87:0.189475 88:0.473685 
2 8:0.166667 11:0.24 16:0.44 48:0.28 53:0.133333 68:0.4 72:0.34 78:0.4 80:0.380001 87:0.144 120:0.22 123:0.36 138:0.44 140:0.4 144:0.226666 
0.7674036168222901 5:0.409095 8:0.189396 53:0.151517 74:0.263636 77:0.327272 84:0.36364 87:0.49091 88:0.545455 92:0.227275 157:0.318185 
1.612514319621806 38:0.58824 75:0.382356 76:0.0657445 78:0.29412 81:0.323532 120:0.323532 155:1 
1.995290263030338 2:0.413798 8:0.574712 64:0.120691 74:0.5 77:0.124139 82:0.718392 87:0.124139 
0.155774166532345 15:0.270836 46:0.270836 54:0.270836 55:0.305557 71:0.35417 84:0.333336 89:0.145835 96:0.41667 115:0.120834 119:0.166668 121:0.141668 124:0.124999 132:0.312503 
0.4643617908294015 8:0.543479 10:0.756522 64:0.152173 82:0.905796 115:0.504347 118:0.152173 121:0.147825 
1.330232320192465 42:0.58824 53:0.19608 76:0.131488 77:0.211766 78:0.29412 80:0.558829 88:0.176472 120:0.323532 157:0.411768 
2 21:0.509806 24:0.764713 50:0.411768 57:0.29412 80:0.558829 105:0.215688 117:0.352943 131:0.647065 
1.720310021865869 30:1 57:0.454545 117:0.545453 124:0.272727 125:0.5 
0.9166865696677423 76:0.124183 77:1 87:1 88:1 
2 44:0.666665 76:0.124183 77:0.799999 84:0.888888 87:0.799999 88:0.333333 
1.55739184915889 70:0.66667 89:0.233335 91:0.66667 106:0.733332 124:0.7 151:0.66667 153:0.733338 
2 44:0.333335 56:0.333335 87:0.200001 97:0.666675 100:0.388892 105:0.203706 112:0.472226 156:0.611117 
0.03842371860620406 6:0.44 8:1 62:0.0945454 64:0.42 74:0.232 76:0.0894117 82:1 86:0.28 87:0.144 88:0.12 
0.22512741030121 46:0.342108 62:0.124403 65:0.552633 88:0.157896 93:0.52632 118:0.552633 124:0.394737 155:0.447372 
2 24:0.928578 31:0.857151 41:0.500004 49:0.428573 72:0.607147 88:0.214287 132:0.535719 
1.989113226996692 5:0.409095 34:1 53:0.151517 57:0.227275 82:0.189396 85:0.151517 106:0.250003 124:0.477273 
1.33715308402937 21:0.30952 57:0.17857 76:0.0399156 78:0.17857 90:0.232141 95:0.392854 106:0.196427 113:0.35714 115:0.10357 120:0.196427 123:0.321426 124:0.160714 162:0.42857 
0.3112149902668766 1:0.485713 8:0.198413 10:0.55238 59:0.285713 74:0.138095 82:0.198413 85:0.15873 112:0.404762 115:0.27619 123:0.857143 145:0.57143 
1.666817704479563 10:0.241665 77:0.299999 82:0.347221 87:0.299999 89:0.291666 119:1 
1.910460366964926 1:0.261538 4:0.38462 8:0.320513 44:0.461537 48:0.269234 53:0.128207 76:0.0859727 78:0.19231 80:0.36539 82:0.320513 84:0.307696 90:0.250003 92:0.19231 120:0.211541 159:0.288466 
2 4:0.37037 5:0.333333 8:0.154321 44:0.444443 52:0.333333 58:0.407407 70:0.37037 77:0.133333 78:0.185185 84:0.296296 87:0.133333 89:0.12963 91:0.37037 127:0.0802469 145:0.444446 
0.3296897202135825 5:0.473688 52:0.947368 68:0.52632 76:0.058824 78:0.26316 82:0.2193 113:0.52632 120:0.289476 123:0.473688 124:0.236842 
2 5:0.473688 52:0.947368 68:0.52632 76:0.352941 82:0.2193 
0.9827272382320111 10:0.18125 53:0.208333 63:0.194444 76:0.0698529 77:0.674999 82:0.260417 84:0.5 85:0.208333 87:0.45 88:0.1875 121:0.2125 
2 57:0.26316 74:0.152633 75:0.342108 90:0.342108 98:0.52632 121:0.178949 140:0.52632 
1.377599105139961 46:0.361114 52:0.500005 66:0.388892 81:0.305558 117:0.666665 124:0.083334 146:0.305558 164:0.444444 
0.598483760015153 46:0.464289 52:0.642862 81:0.39286 117:0.85714 124:0.214285 154:0.71429 155:0.607147 164:0.571428 
2 1:0.18889 2:0.666675 5:1 11:0.333335 12:0.611117 39:0.55556 52:0.500005 66:0.388892 81:0.305558 146:0.305558 
0.6303700581710507 76:0.0745102 81:0.366669 113:0.66667 124:0.1 157:0.466669 
0.8619054998306367 81:0.423077 109:0.923076 124:0.115384 157:0.538462 158:0.142857 160:0.282051 
0.1439637266241738 63:1 76:0.0798324 77:0.12857 84:0.285712 87:0.12857 
0.718067563353998 64:0.318182 90:0.590909 109:0.363636 126:0.90909 136:0.90909 156:1 
2 5:0.642862 6:0.78572 48:1 65:0.250002 149:0.857151 
2 11:0.333335 29:0.611117 39:0.55556 77:0.200001 84:0.444448 120:0.305558 144:0.314817 147:0.666675 
0.04392870608774428 74:0.152633 77:0.568422 87:0.568422 
2 11:0.260867 48:0.304346 59:0.260867 88:0.130434 89:0.152173 105:0.159419 121:0.295653 125:0.478264 128:0.369563 137:0.326086 143:0.304346 151:0.43478 
0.06439971006985724 6:0.647065 7:0.470592 71:1 86:0.205884 88:0.176472 89:0.205884 120:0.647059 124:0.088236 125:0.323532 
0.1615295637101046 7:0.470592 10:0.170589 71:1 88:0.176472 89:0.411765 115:0.341176 119:0.235296 124:0.352941 125:0.323532 
2 6:0.407407 9:0.407407 12:0.407407 49:0.222222 63:0.115226 77:0.133333 89:0.12963 102:0.407407 105:0.135802 112:0.314815 115:0.107407 124:0.0555555 125:0.203704 129:0.333333 
2 12:0.392854 55:0.261902 57:0.17857 74:0.10357 89:0.124999 101:0.303569 108:0.154761 112:0.303569 113:0.35714 126:0.35714 129:0.321426 138:0.392854 144:0.202379 149:0.42857 
0.1498753719753075 1:0.536842 10:0.457895 15:0.342108 57:0.26316 76:0.058824 78:0.26316 108:0.228072 113:0.52632 115:0.457895 120:0.289476 123:0.473688 
2 12:0.916664 56:1 111:1 
0.7201977949187359 53:0.15873 75:0.619048 76:0.159664 78:0.47619 85:0.15873 89:0.166667 103:0.57143 120:0.52381 
0.6767564181462238 44:0.374999 57:0.3125 70:0.625 75:0.40625 117:0.374999 124:0.65625 
1.584282784220864 30:0.78572 87:0.257144 138:0.78572 158:0.132654 
1.280576041442868 93:0.71429 121:0.242858 124:0.107143 143:0.500004 144:0.404763 
0.2118677920342752 88:0.833335 89:0.972224 121:0.944444 124:0.166666 
0.810507881891257 49:1 89:0.388889 116:0.120371 117:1 121:0.18889 124:0.083334 
1.601767564777676 63:0.239316 75:1 76:0.171945 132:0.576924 133:0.846154 
0.3107725381556351 57:0.384615 65:0.269231 117:0.923074 123:0.692308 124:0.230769 132:0.576924 133:0.846154 164:0.307692 
1.777346814516959 8:0.277779 10:0.193334 43:0.633337 70:0.66667 88:0.200001 89:0.233335 121:0.226668 136:0.66667 
0.2541102101042168 8:0.297621 57:0.357145 76:0.0798324 78:0.357145 96:0.71429 113:0.71429 120:0.39286 122:0.78572 123:0.642862 124:0.321429 128:0.607147 
2 90:0.282607 124:0.065217 125:0.239129 128:0.369563 132:0.326086 137:0.326086 
2 21:0.541665 70:0.625 104:0.625 154:0.625 
1.107342165088824 27:0.90909 46:0.590909 55:0.666664 117:0.545453 164:0.363636 
0.6915063254300865 62:0.661818 105:0.146667 121:0.272 156:0.44 
2 12:1 53:0.30303 56:0.545453 77:0.327272 83:0.818182 87:0.327272 88:0.272727 111:0.545453 132:0.681819 
0.115215912834557 76:0.478991 77:0.257144 113:0.71429 117:0.428573 
1.066228578441051 25:0.857151 55:0.523811 57:0.357145 78:0.357145 117:0.85714 120:0.39286 124:0.321429 
0.9249209696061497 71:0.607147 73:0.857151 78:0.357145 119:0.285716 121:0.242858 123:0.642862 124:0.428571 153:0.78572 
2 1:0.178949 10:0.305262 13:0.289476 20:0.421056 83:0.947368 89:0.184212 112:0.447372 121:0.178949 
0.3357261967780685 62:0.56277 65:1 118:1 124:0.285714 
0.4692582049448432 62:0.168832 65:0.875001 86:1 121:0.971426 124:0.160714 
0.590318494350348 64:0.875001 88:0.535714 89:1 118:1 
0.873453683769402 62:0.56277 64:1 86:1 88:0.571429 
0.261279805670748 64:1 89:0.833333 118:1 124:0.285714 
2 35:0.541672 36:0.458337 46:0.270836 57:0.208335 124:0.375 
0.9559970588395939 46:1 100:0.538462 118:0.269231 126:0.76923 
0.03540391014577559 2:0.545462 15:0.295458 21:0.393942 57:0.227275 124:0.545454 
0.2771074740582252 1:0.200001 8:0.980392 82:0.735296 89:0.82353 115:0.341176 121:0.600001 
0.7807686745409265 8:0.189396 43:0.431823 52:0.409095 57:0.227275 72:0.386368 74:0.131819 76:0.0508026 78:0.227275 85:0.151517 108:0.196972 113:0.45455 120:0.250003 123:0.409095 124:0.204546 
2 5:0.36 8:0.166667 44:0.24 73:0.480002 85:0.133333 88:0.12 89:0.14 101:0.34 106:0.22 120:0.22 128:0.34 
2 5:0.310347 11:0.206898 53:0.114943 55:0.252875 65:0.120691 85:0.114943 88:0.103449 101:0.293106 125:0.189657 128:0.293106 130:0.327589 149:0.413798 
0.9130053939341578 1:1 8:0.2451 74:0.682352 77:0.211766 82:0.2451 87:0.211766 157:0.411768 
2 53:0.784313 75:0.764706 77:0.635295 85:0.588237 87:0.847058 
0.1503368548113556 8:0.490196 79:1 87:0.635295 88:0.529414 144:1 
1.538589929313902 15:1 17:0.92308 76:0.0859727 127:0.333333 157:0.538462 158:0.142857 
1.563745896360397 21:0.722217 76:0.0931369 127:0.361112 157:0.583332 158:0.154761 
1.179038288635063 13:0.458332 17:1 30:0.916664 76:0.0931369 127:0.361112 136:0.83333 157:0.583332 158:0.154761 
2 13:0.458332 17:1 76:0.0931369 
0.5841027857703852 10:0.223076 64:0.269231 85:0.25641 115:0.223076 118:0.269231 124:0.230769 125:0.423077 132:0.576924 136:0.76923 
0.4971557306353076 46:0.342108 75:0.342108 81:0.289476 87:0.189475 119:0.210528 121:0.178949 124:0.078948 157:0.368424 164:0.210528 
2 3:0.5 27:0.5 42:0.5 74:0.145 144:0.566665 148:0.316666 150:0.5 
1.977352428098041 45:0.409095 69:0.545462 80:0.431823 84:0.36364 125:0.250003 137:0.340913 144:0.257578 147:0.545462 
2 1:0.272 8:0.166667 53:0.133333 77:0.144 80:0.380001 85:0.133333 90:0.26 128:0.34 140:0.4 147:0.480002 
2 1:0.130771 3:0.38462 10:0.11154 30:0.423082 41:0.269234 44:0.230772 69:0.461546 84:0.307696 126:0.38462 137:0.288466 144:0.217951 154:0.38462 
2 3:0.68966 41:0.241381 55:0.252875 59:0.206898 88:0.103449 91:0.34483 113:0.34483 117:0.413795 145:0.413798 148:0.218392 151:0.34483 
2 1:0.261538 3:0.38462 22:0.250003 40:0.500007 47:0.38462 48:0.269234 71:0.326927 84:0.307696 104:0.38462 117:0.230772 
0.241059911547605 62:0.43771 67:0.37037 69:0.444446 78:0.185185 119:0.148148 124:0.0555555 125:0.203704 137:0.277778 144:0.209876 
2 87:0.257144 91:0.71429 99:0.928578 126:0.71429 150:0.71429 
0.573434107519282 70:0.71429 78:0.357145 127:0.309524 136:0.71429 156:0.78572 157:1 
1.186173974454073 62:0.168832 65:0.250002 118:0.250002 129:0.642862 157:0.500004 
2 87:0.257144 110:0.78572 116:0.154763 160:0.261907 
2 7:0.571432 64:0.250002 69:0.857151 88:0.214287 
0.2130880018716594 5:0.600004 57:1 89:0.466666 112:0.56667 115:0.193334 117:0.400001 121:0.226668 123:0.600004 124:0.199999 125:0.366669 136:0.66667 
2 3:0.35714 14:0.392854 42:0.35714 54:0.232141 57:0.17857 74:0.10357 75:0.232141 77:0.12857 126:0.35714 
1.942211091289147 17:0.857151 66:0.500004 70:0.71429 76:0.159664 79:0.404763 135:0.71429 
0.7206207280604807 
1.023534377182114 116:1 
0.5341669460506121 127:1 158:1 
2 2:0.57143 15:0.309524 44:0.285713 55:0.349205 71:0.404762 89:0.166667 91:0.47619 96:0.47619 115:0.138095 119:0.190476 124:0.142857 
0.6509651652555092 10:0.138095 19:0.52381 71:0.404762 91:0.47619 96:0.47619 117:0.285713 121:0.323809 124:0.142857 143:0.333333 145:0.57143 151:0.47619 
1.08870452562452 10:0.241665 44:0.499997 82:0.347221 89:0.291666 119:0.333332 126:0.83333 143:0.583332 
2 70:0.83333 121:0.283332 148:0.527775 153:0.916664 
2 3:0.41667 34:0.130953 52:0.375003 58:0.458337 74:0.120834 76:0.139706 87:0.150001 115:0.120834 149:0.500006 
0.02872670880887561 10:0.207144 100:0.500004 113:0.71429 115:0.207144 117:0.428573 123:0.642862 124:0.321429 126:0.71429 143:1 
2 5:0.428571 10:0.138095 12:0.52381 59:0.285713 74:0.138095 77:0.171428 89:0.166667 110:0.52381 120:0.261905 151:0.47619 
0.5312699650261571 46:0.68421 53:0.17544 89:0.184212 92:0.789475 115:0.152633 121:0.536842 125:0.289476 138:0.578953 155:0.894736 158:0.195488 160:0.385965 
1.233077862091345 68:0.90909 90:0.590909 106:0.5 119:0.363636 136:0.90909 
1.261331548564273 68:0.90909 119:0.363636 136:0.90909 
2 
2 1:0.377777 8:0.308642 11:0.222222 48:0.259259 74:0.214814 76:0.0413943 80:0.351852 87:0.266666 88:0.111111 91:0.37037 92:0.185185 149:0.444446 
0.3251453965885047 1:0.283332 5:0.749998 39:0.83333 57:0.416665 76:0.0931369 78:0.833335 120:0.916669 126:0.83333 
2 44:0.85714 76:0.159664 85:0.238097 87:0.257144 88:0.214287 112:0.607147 162:0.857151 
2 16:0.500006 17:0.545462 43:0.431823 44:0.272729 66:0.318185 71:0.386368 73:0.545462 74:0.131819 77:0.163638 79:0.257578 87:0.163638 
1.797431986949404 1:0.2125 64:0.21875 71:0.53125 74:0.18125 76:0.0698529 89:0.21875 114:0.937495 125:0.34375 141:0.874995 
0.6577241545298881 73:0.800007 78:0.666665 89:0.233335 120:0.366669 124:0.3 125:0.366669 150:0.66667 
0.07038482837221304 77:0.479998 79:0.377779 87:0.240001 88:0.600001 89:0.233335 91:0.66667 120:0.733332 
2 44:0.400001 76:0.0745102 78:0.333335 80:0.633337 87:0.479998 88:0.399999 120:0.366669 121:0.226668 153:0.733338 
2 44:0.333335 46:0.361114 76:0.062092 77:0.200001 103:0.666675 105:0.203706 120:0.305558 124:0.083334 125:0.305558 135:0.55556 
2 22:0.433336 66:0.466669 76:0.0745102 95:0.733338 120:0.366669 128:0.56667 143:0.466669 
0.7730516688567247 11:0.374999 57:0.625 82:0.260417 85:0.208333 89:0.21875 117:0.374999 121:0.2125 124:0.1875 127:0.135417 
2 17:0.444446 53:0.123457 76:0.0413943 78:0.185185 83:0.333333 84:0.296296 85:0.246913 91:0.37037 130:0.351852 145:0.444446 159:0.277778 
2 56:0.545453 77:0.327272 106:0.5 
0.3353267568642728 8:0.160258 36:0.423082 46:0.250003 53:0.25641 78:0.19231 82:0.160258 88:0.230769 89:0.269231 120:0.423077 121:0.130771 
1.644809233157472 23:0.666664 88:0.249999 89:0.291666 103:1 117:0.499997 152:0.541665 159:0.624999 163:0.916664 
2 64:0.617649 
0.9760756844846887 77:0.635295 
2 1:0.34 82:0.208333 134:0.5 135:0.5 
2 59:0.24 75:0.780001 140:0.4 
2 20:0.615384 75:0.5 76:0.171945 132:0.576924 
1.725169844814064 4:0.625 43:0.593751 55:0.458332 71:0.53125 74:0.18125 75:0.40625 77:0.225 85:0.208333 89:0.21875 106:0.34375 120:0.687501 
2 46:0.5 54:0.5 90:1 99:1 121:0.261538 127:0.166667 132:0.576924 
2 44:0.499997 47:0.83333 55:0.611107 84:0.666664 163:0.916664 
0.7309767519079026 53:0.277777 62:0.196969 109:0.333332 126:0.83333 
0.627051163289337 1:0.261538 8:0.160258 48:0.269234 53:0.25641 64:0.134617 76:0.0859727 78:0.19231 80:0.36539 82:0.160258 85:0.128207 86:0.134617 88:0.115386 91:0.38462 111:0.230772 120:0.211541 159:0.288466 
2 8:0.2193 53:0.17544 84:0.421056 88:0.631579 92:0.26316 
0.6120084355004266 76:0.159664 89:0.250002 104:0.71429 128:0.607147 
1.291024801918195 105:0.261907 107:0.71429 120:0.39286 124:0.107143 143:0.500004 147:0.857151 
0.4178661742169346 76:0.0931369 78:0.833335 124:0.124999 131:0.916664 136:0.83333 
0.7968605717521768 37:0.647065 77:0.211766 78:0.588235 100:0.411768 116:0.127452 120:0.323532 124:0.17647 145:0.705891 
1.17569437699775 33:0.647065 57:0.29412 76:0.197232 77:0.211766 78:0.29412 87:0.211766 99:0.764713 120:0.323532 126:0.58824 
0.8846603807094655 8:0.260417 76:0.279412 79:0.708332 84:0.5 128:0.53125 
0.274292532643912 57:0.454545 65:0.318182 78:0.454545 90:0.590909 120:0.5 121:0.30909 124:0.40909 126:0.90909 133:1 
0.1105512601059571 51:0.333335 62:0.157577 65:0.466666 116:0.144445 117:0.400001 118:0.233335 124:0.1 
2 72:0.85 76:0.111765 164:0.4 
0.8251152157965794 8:0.378788 63:0.282828 72:0.772727 76:0.101604 115:0.263636 133:1 164:0.363636 
0.2129976888030335 1:0.61818 46:0.590909 63:0.282828 76:0.101604 115:0.263636 133:1 
0.9457026831756457 46:0.590909 63:0.282828 72:0.772727 76:0.101604 119:0.363636 133:1 
0.601227158861844 43:0.500005 46:0.342108 68:0.52632 84:0.421056 88:0.157896 112:0.447372 118:0.184212 119:0.63158 136:0.52632 
2 5:0.428571 7:0.380952 43:0.452381 46:0.309524 59:0.285713 71:0.404762 84:0.380952 88:0.142857 112:0.404762 119:0.190476 
1.198826616825778 78:0.454545 90:0.590909 101:0.772727 113:0.90909 119:0.727272 136:0.90909 
0.08638722675222538 71:0.772727 106:0.5 113:0.90909 123:0.818182 124:0.272727 125:0.5 136:0.90909 
0.5184857467960794 71:0.772727 76:0.101604 79:0.51515 119:0.363636 122:1 
0.3269859635190952 78:0.454545 113:0.90909 119:0.363636 120:0.5 123:0.818182 124:0.136363 125:0.5 135:0.90909 136:0.90909 
0.8672340419708137 71:0.772727 72:0.772727 113:0.90909 119:0.363636 120:0.5 126:0.90909 136:0.90909 
1.029977662509944 71:0.772727 100:0.636364 108:0.393939 118:0.318182 121:0.30909 124:0.136363 
1.872645233243491 100:0.636364 113:0.90909 119:0.363636 121:0.30909 124:0.136363 
1.494164528974017 78:0.454545 87:0.327272 100:0.636364 134:0.90909 135:0.90909 
0.4723170291646449 70:0.90909 118:0.318182 123:0.818182 136:0.90909 
0.7470547252431802 107:1 143:0.700001 
1.201541622952165 143:0.636364 151:0.90909 
1.886342855068137 38:0.83333 82:0.347221 128:0.708331 129:0.749998 133:0.916664 
0.2949095621955372 133:1 
0.2815723519119568 113:0.90909 126:0.90909 144:0.51515 
2 8:0.378788 11:0.545453 151:0.90909 
2 10:0.263636 39:0.90909 82:0.378788 115:0.263636 
2 106:0.5 107:0.90909 
0.892008348767388 1:0.30909 39:0.90909 91:0.90909 159:0.681819 
2 92:0.454545 130:0.863637 
1.881456458367735 26:0.90909 45:0.818182 
1.434777563783041 41:0.636364 157:0.636364 
2 39:0.90909 85:0.30303 109:0.363636 
1.728892549627389 104:0.90909 
2 48:0.636364 109:0.363636 128:0.772727 140:0.90909 157:0.636364 
2 85:0.30303 
1.47242947556281 4:0.90909 112:0.772727 133:1 
0.9132937508343182 89:0.318182 92:0.454545 106:1 133:1 
0.417416641410233 109:0.363636 138:1 151:0.90909 156:1 
0.9606134027641853 109:0.363636 131:1 138:1 156:1 160:0.333333 
1.03477402723682 64:0.318182 90:0.590909 138:1 
2 90:0.590909 109:0.363636 
1.442952370479987 44:0.545453 90:0.590909 102:1 113:0.90909 138:1 151:0.90909 155:0.772727 
2 27:0.90909 44:0.545453 90:0.590909 
0.7815783397422853 55:0.666664 86:0.318182 89:0.318182 106:0.5 
2 
2 7:0.727272 50:0.636364 70:0.90909 85:0.30303 107:0.90909 112:0.772727 
2 82:0.378788 90:0.590909 101:0.772727 106:0.5 
2 55:0.666664 105:0.333333 
2 8:0.378788 82:0.378788 88:0.272727 106:0.5 
1.959317165365856 65:0.318182 104:0.90909 105:0.333333 
0.8259080967371201 10:0.263636 125:0.5 133:1 
2 90:0.590909 109:0.363636 
2 56:0.545453 85:0.30303 132:0.681819 
2 
2 79:0.51515 142:1 
1.91398426258528 58:1 101:0.772727 115:0.263636 128:0.772727 132:0.681819 136:0.90909 
2 63:0.282828 106:0.5 
2 30:1 88:0.272727 90:0.590909 109:0.363636 135:0.90909 137:0.681819 
1.693787705964881 29:1 124:0.136363 159:0.681819 
2 5:0.428571 27:0.47619 37:0.52381 49:0.285713 67:0.47619 76:0.159664 87:0.171428 112:0.404762 
2 5:0.321426 7:0.285712 27:0.35714 42:0.35714 44:0.214284 48:0.249998 49:0.214284 50:0.249998 78:0.17857 85:0.119047 99:0.464282 113:0.35714 117:0.214284 120:0.196427 123:0.321426 124:0.160714 
2 1:0.125926 8:0.308642 11:0.444443 31:0.444446 48:0.259259 53:0.123457 78:0.185185 82:0.308642 88:0.333333 132:0.555556 145:0.444446 
1.058324607645566 1:0.130771 2:0.461546 10:0.11154 11:0.230772 65:0.269231 66:0.269234 118:0.134617 119:0.153848 123:0.346158 124:0.230769 143:0.269234 145:0.461546 
1.268686494050394 25:0.500006 76:0.0931369 78:0.416665 80:0.395837 87:0.150001 120:0.458332 125:0.229169 136:0.41667 137:0.312503 154:0.83333 
1.729540366831974 53:0.19608 62:0.139039 64:0.205884 82:0.2451 85:0.19608 88:0.529414 89:0.411765 118:0.411765 135:0.58824 
0.1465774577682366 77:0.240001 92:1 128:0.56667 157:0.466669 159:1 
0.8756315746083366 84:0.666664 121:0.283332 164:1 
0.8400816856377001 81:1 158:0.506493 
2 1:0.136 8:0.333333 11:0.479999 15:0.26 53:0.133333 76:0.0447059 82:0.333333 84:0.32 87:0.144 88:0.36 145:0.480002 
0.6786028563868463 3:0.34483 7:0.275864 43:0.327589 57:0.51724 76:0.0385398 78:0.172415 108:0.149426 113:0.34483 120:0.189657 123:0.310347 124:0.206896 126:0.34483 132:0.258623 140:0.34483 
0.02168947106329426 3:0.37037 7:0.296296 43:0.351852 57:0.37037 124:0.61111 126:0.74074 132:0.277778 140:0.37037 
0.2627217058275613 1:0.178949 5:0.473688 8:0.877192 74:0.305262 77:0.568422 82:0.657896 87:0.757893 
-2 70:0.58824 100:0.411768 108:0.254904 119:0.235296 154:0.58824 
-0.1657010328427896 51:0.416665 56:0.499997 59:1 61:1 132:0.624999 
-2 57:0.25 77:0.18 90:0.325 108:0.216667 111:0.299999 113:0.5 120:0.275 121:0.17 136:0.5 
-0.4334218210591198 1:0.147825 5:0.391302 8:0.181158 17:0.521738 40:0.565215 44:0.260867 52:0.391302 76:0.0485931 80:0.413042 82:0.181158 84:0.347824 151:0.43478 153:0.478258 
-0.6057230405708617 44:1 59:0.499997 82:0.347221 140:0.83333 
-1.096466679598404 5:0.692308 16:0.423082 17:0.461546 44:0.230772 53:0.384617 74:0.11154 75:0.250003 77:0.138463 82:0.160258 84:0.307696 87:0.276923 88:0.115386 111:0.230772 
-2 81:0.458332 109:1 124:0.124999 157:0.583332 158:0.154761 160:0.305555 
-0.2005720920146212 23:0.941176 40:0.764713 57:0.588235 83:0.529417 117:0.352943 121:0.200001 124:0.17647 146:0.323532 149:0.705891 161:0.431375 
-0.424192795084439 8:0.181158 11:0.260867 48:0.304346 58:0.478258 59:0.260867 68:0.43478 76:0.0485931 77:0.156521 85:0.144927 87:0.313045 90:0.282607 102:0.478258 135:0.43478 140:0.43478 
-0.6825782379698587 7:0.727272 39:0.90909 66:0.636364 70:0.90909 106:0.5 146:0.5 
-0.3882778638713246 11:0.499997 41:0.583332 128:0.708331 153:0.916664 155:0.708331 
-2 1:0.234484 8:0.143679 52:0.310347 55:0.252875 74:0.200001 75:0.448279 76:0.0770796 87:0.248277 105:0.126438 142:0.379313 157:0.241381 
-2 5:0.391302 11:0.260867 48:0.304346 53:0.144927 74:0.126086 75:0.565221 85:0.144927 87:0.156521 88:0.260871 92:0.21739 
-2 74:0.223076 76:0.171945 78:0.384615 87:0.276923 124:0.115384 127:0.166667 157:0.538462 
-1.130431514099097 44:0.545453 66:0.636364 89:0.318182 119:0.727272 146:0.5 
-2 1:0.178949 8:0.2193 21:0.456142 70:0.52632 75:0.342108 78:0.26316 87:0.189475 103:0.631587 132:0.394741 
-0.009398227239880321 11:0.315791 42:0.52632 44:0.315791 59:0.315791 77:0.189475 80:1 82:0.2193 85:0.17544 148:1 153:0.578953 
-2 37:0.423082 43:0.36539 49:0.230772 64:0.134617 76:0.0429869 79:0.217951 81:0.211541 85:0.128207 155:0.326927 
-0.3441742833498922 53:0.60606 58:1 75:0.590909 85:0.60606 87:0.327272 88:0.272727 
-0.6253626836406625 7:0.615384 8:0.320513 67:0.76923 69:0.92308 74:0.223076 77:0.276923 85:0.25641 87:0.276923 
-2 8:0.2451 12:0.647065 53:0.19608 59:0.352943 61:0.176472 62:0.139039 75:0.382356 82:0.2451 86:0.205884 88:0.176472 
-0.2102938791413373 8:0.2451 28:0.58824 50:0.411768 75:0.382356 90:0.382356 96:0.58824 125:0.323532 135:0.58824 147:0.705891 
-0.5158543431683093 8:0.297621 17:0.857151 53:0.238097 66:1 74:0.207144 85:0.238097 87:0.257144 91:0.71429 106:0.39286 
-0.6372913571797491 7:0.666664 44:0.499997 77:0.299999 85:0.277777 88:0.500002 90:0.541665 128:0.708331 
-0.792236163522779 27:0.83333 41:0.583332 53:0.277777 73:1 84:0.666664 
-0.7263197258297306 5:0.409095 59:0.272729 77:0.163638 79:0.257578 85:0.151517 87:0.163638 88:0.272727 90:0.295458 91:0.45455 132:0.340913 149:0.545462 153:0.500006 
-2 53:0.144927 76:0.0485931 88:0.130434 89:0.152173 92:0.21739 110:0.478258 125:0.239129 135:0.43478 
-1.181349926952813 1:0.136 8:0.166667 26:0.4 48:0.28 57:0.2 59:0.24 64:0.14 68:0.8 75:0.26 78:0.2 81:0.22 89:0.14 119:0.16 120:0.44 124:0.12 
-2 1:0.136 8:0.166667 26:0.4 48:0.28 57:0.2 59:0.24 64:0.14 68:0.8 75:0.26 78:0.2 81:0.22 89:0.14 119:0.16 120:0.44 124:0.12 
-2 29:0.550001 62:0.118182 65:0.175 93:0.5 117:0.299999 120:0.275 125:0.275 133:0.550001 135:0.5 164:0.2 
-1.573465778216735 5:0.333333 17:0.444446 30:0.814815 52:0.333333 53:0.123457 75:0.240741 77:0.133333 82:0.308642 87:0.133333 88:0.111111 137:0.277778 140:0.37037 
-0.2142775060361844 5:0.310347 8:0.143679 42:0.34483 44:0.206898 48:0.241381 51:0.172415 56:0.206898 75:0.22414 79:0.195403 80:0.327589 85:0.114943 87:0.124139 88:0.103449 92:0.172415 104:0.34483 111:0.206898 145:0.413798 148:0.218392 157:0.241381 
-0.008601904903891513 7:0.941176 8:0.2451 54:0.382356 70:0.58824 72:1 77:0.211766 82:0.2451 85:0.19608 88:0.176472 90:0.382356 106:0.323532 128:1 
-0.2943837219056152 13:0.211541 32:0.423082 59:0.230772 100:0.269234 101:0.326927 111:0.230772 122:0.423082 127:0.0833344 138:0.423082 139:0.358978 148:0.243592 151:0.38462 153:0.423082 160:0.141027 
-2 76:0.058824 77:0.378946 87:0.378946 113:0.52632 115:0.152633 134:0.52632 138:0.578953 157:0.368424 
-1.991221348051391 39:0.37037 42:0.74074 48:0.259259 50:0.259259 76:0.0827886 78:0.37037 87:0.133333 121:0.125926 124:0.0555555 162:0.444446 
-0.3520921969145273 11:0.230772 12:0.423082 16:0.423082 17:0.92308 38:0.38462 70:0.38462 80:0.36539 103:0.461546 139:0.358978 146:0.211541 149:0.461546 
-0.5089871521544656 6:0.500006 11:0.272729 12:0.500006 48:0.636364 57:0.227275 68:0.45455 80:0.431823 125:0.250003 132:0.340913 145:0.545462 
-1.187562013045166 44:0.499997 77:0.299999 84:0.666664 85:0.277777 88:0.249999 91:0.83333 106:0.458332 
-2 3:0.38462 10:0.11154 31:0.461546 35:0.500007 56:0.230772 78:0.19231 82:0.160258 88:0.115386 90:0.250003 100:0.269234 102:0.423082 112:0.326927 120:0.423077 132:0.288466 
-0.7996274975849554 2:0.631587 12:0.578953 18:0.52632 53:0.17544 84:0.421056 112:0.447372 145:0.631587 163:0.578953 
-0.3913349422839864 43:0.73077 53:0.51282 77:0.276923 84:0.615384 91:0.76923 117:0.461537 140:0.76923 
-0.3231476130595909 4:0.625 44:0.749999 73:0.750003 87:0.225 90:0.812501 136:0.625 154:0.625 
-1.42721409745782 8:0.333333 11:0.479999 48:0.840001 51:0.2 61:0.12 78:0.2 86:0.14 90:0.26 140:0.4 149:0.480002 
-2 53:0.47619 55:0.349205 85:0.47619 88:0.571429 106:0.261905 
-1.327306044031763 1:0.295653 7:0.347824 12:0.478258 53:0.144927 73:0.521738 74:0.126086 76:0.0485931 151:0.43478 161:0.318838 
-1.697932679513912 5:0.749998 44:0.499997 52:0.749998 53:0.277777 105:0.305555 
-0.6761519041023502 39:0.83333 70:0.83333 76:0.0931369 79:0.472219 85:0.277777 106:0.916669 162:1 
-2 11:0.444443 29:0.407407 76:0.0413943 89:0.12963 101:0.314815 120:0.203704 121:0.125926 130:0.351852 143:0.259259 148:0.234567 
-1.051797158141504 51:1 61:0.45 62:0.590909 
-1.381275011644257 1:0.147825 10:0.126086 11:0.260867 12:0.478258 44:0.521741 73:0.521738 76:0.0485931 82:0.362321 121:0.147825 146:0.239129 
-2 31:0.600002 44:0.299999 58:0.550001 77:0.18 89:0.175 95:0.550001 117:0.299999 124:0.075 151:0.5 164:0.2 
-1.198019016073257 1:0.161904 5:0.428571 11:0.285713 43:0.452381 53:0.15873 74:0.138095 75:0.309524 80:0.452381 91:0.47619 149:0.57143 
-1.256527353145344 42:0.58824 45:0.529417 51:0.29412 64:0.205884 70:0.58824 77:0.211766 82:0.2451 84:0.941176 
-0.6995349455061829 22:1 72:0.653846 139:0.717947 144:0.435896 
-0.2135064283433272 22:0.382356 23:0.941176 40:0.764713 50:0.411768 59:0.352943 117:0.705881 124:0.088236 143:0.411768 146:0.970591 
-0.1633561839994297 56:0.400001 61:0.200001 62:0.157577 80:0.633337 114:1 152:0.433336 153:0.733338 
-1.69287772679433 1:0.147825 5:0.391302 10:0.126086 59:0.260867 66:0.304346 76:0.0485931 80:0.413042 82:0.181158 145:0.521738 151:0.43478 153:0.478258 
-2 17:0.800007 52:0.600004 66:0.466669 78:0.666665 87:0.240001 105:0.244446 121:0.226668 
-2 17:0.800007 76:0.0745102 87:0.240001 109:0.266668 148:0.422224 
-0.06803697694438331 8:0.2193 11:0.315791 28:0.52632 47:0.52632 49:0.315791 90:0.342108 95:0.578953 105:0.192984 128:0.447372 135:0.52632 147:0.631587 
-0.3559452227627727 11:0.214284 17:0.42857 50:0.249998 67:0.35714 77:0.12857 80:0.339284 89:0.124999 102:0.78572 140:0.35714 145:0.857151 
-2 1:0.200001 4:0.58824 44:0.352943 77:0.211766 82:0.2451 
-2 1:0.261538 8:0.320513 44:0.461537 77:0.276923 84:0.615384 87:0.553845 88:0.230769 106:0.423077 
-0.2695019506188323 8:0.260417 42:0.625 48:0.4375 64:0.21875 77:0.225 84:1 88:0.1875 90:0.40625 106:0.34375 133:0.687501 
-0.005359614190181774 1:0.161904 5:0.428571 8:0.396825 11:0.285713 48:0.333333 54:0.309524 58:0.52381 68:0.47619 74:0.27619 80:0.452381 85:0.15873 145:0.57143 
-1.540214722513136 5:0.428571 11:0.285713 39:0.47619 44:0.285713 53:0.15873 54:0.309524 69:0.57143 74:0.138095 76:0.0532212 84:0.380952 87:0.171428 
-0.8844438104100553 23:0.5 44:0.749999 66:0.4375 76:0.0698529 84:0.5 106:0.34375 
-1.145923534786887 11:0.285713 42:0.47619 43:0.452381 53:0.15873 74:0.138095 75:0.309524 76:0.0532212 84:0.380952 147:0.57143 
-2 88:0.249999 89:0.291666 118:0.291666 153:0.916664 
-1.148994855498769 8:0.277779 44:0.799996 70:0.66667 72:0.56667 
-0.7876831117084449 43:0.791665 53:0.277777 70:0.83333 84:0.666664 88:0.249999 91:0.83333 106:0.458332 121:0.283332 132:0.624999 136:0.83333 
-2 8:0.143679 17:0.413798 41:0.241381 50:0.241381 74:0.100001 77:0.124139 88:0.103449 102:0.379313 119:0.137932 139:0.321841 
-0.8989563954775687 4:0.41667 39:0.41667 44:0.250001 48:0.291669 68:0.41667 75:0.270836 85:0.13889 
-0.1868640813336414 5:0.749998 44:0.499997 53:0.555557 68:0.83333 82:0.694446 
-0.422654764009251 13:0.239129 18:0.43478 32:0.478258 59:0.260867 76:0.0485931 77:0.156521 82:0.181158 87:0.156521 141:0.608688 153:0.478258 
-0.5445341935639341 34:0.142858 48:0.318185 51:0.227275 53:0.151517 55:1 56:0.272729 105:1 
-0.9622873009476826 7:0.615384 73:0.92308 74:0.223076 76:0.0859727 77:0.276923 88:0.230769 90:0.5 
-1.569537470813412 1:0.283332 7:0.666664 8:0.347221 10:0.241665 69:1 74:0.241665 82:0.347221 87:0.299999 
-1.682498360790548 5:0.500005 55:0.40741 56:0.333335 75:0.361114 77:0.399999 82:0.231483 85:0.185187 88:0.166668 90:0.361114 113:0.55556 
-0.2436787203959242 39:0.58824 53:0.19608 55:0.431375 69:0.705891 73:0.705891 80:0.558829 84:0.470592 87:0.423529 106:0.323532 149:0.705891 
-2 7:0.421056 43:1 51:0.26316 57:0.26316 61:0.157896 62:0.124403 71:0.447372 77:0.189475 85:0.17544 87:0.189475 88:0.157896 115:0.152633 127:0.114036 
-2 15:0.270836 18:0.41667 69:0.500006 77:0.150001 124:0.0625005 143:0.291669 157:0.291669 164:0.166668 
-1.659687093671853 10:0.18125 59:0.374999 82:0.260417 145:0.750003 162:0.750003 
-0.1101015683583013 8:0.320513 43:0.73077 48:0.538462 55:0.5641 68:0.76923 85:0.25641 87:0.276923 88:0.692308 106:0.423077 
-2 76:0.223529 77:0.36 84:0.8 87:0.36 
-0.7300398257484302 13:0.5 20:0.727272 64:0.318182 83:0.818182 88:0.272727 110:1 112:0.772727 163:1 
-0.4381550337149486 18:0.90909 23:0.727272 78:0.454545 117:0.545453 146:1 161:0.666664 
-1.460373644605352 15:0.5 55:0.5641 68:0.76923 119:0.307692 146:0.423077 
-0.5413619181737245 17:0.631587 42:0.52632 55:0.385967 58:0.578953 106:0.289476 108:0.228072 111:0.315791 129:0.473688 146:0.289476 
-2 57:0.416665 85:0.277777 90:0.541665 
-2 5:0.500005 8:0.231483 10:0.161112 48:0.388892 82:0.231483 106:0.305558 147:0.666675 
-2 64:0.636364 
-1.036584495509019 55:0.5641 105:0.282051 108:0.666667 111:0.461537 
-0.4879217438118281 42:0.55556 43:0.527783 51:0.27778 72:0.472226 84:0.444448 160:0.203706 
-2 10:0.18125 39:0.625 44:0.374999 50:0.4375 71:0.53125 77:0.225 82:0.260417 89:0.21875 119:0.25 120:0.34375 124:0.09375 
-1.215506738179427 3:0.625 34:0.196428 37:0.687501 48:0.4375 105:0.229167 112:0.53125 
-0.960934861141165 8:0.347221 11:1 74:0.241665 76:0.0931369 110:0.916664 123:0.749998 124:0.124999 147:1 
-2 6:0.647065 27:0.58824 77:0.211766 80:0.558829 82:0.490196 85:0.19608 149:0.705891 
-1.062276415179814 39:0.76923 91:0.76923 142:0.846154 154:0.76923 
-0.8459239799397217 44:0.461537 57:0.384615 85:0.51282 119:0.307692 152:0.5 155:0.653846 
-1.013636880273516 1:0.392309 5:0.346158 8:0.160258 50:0.269234 53:0.128207 74:0.223076 85:0.128207 92:0.19231 96:0.38462 99:0.500007 149:0.461546 150:0.38462 
-0.3477976400201636 44:0.299999 52:0.900001 56:0.299999 58:0.550001 68:1 90:0.325 95:0.550001 111:0.299999 132:0.750002 
-1.982152681872645 56:0.545453 85:0.30303 106:0.5 152:0.590909 
-0.5540570686669502 7:0.727272 20:0.727272 37:1 70:0.90909 104:0.90909 
-1.354574253054828 46:0.590909 56:0.545453 85:0.30303 106:0.5 111:0.545453 
-0.4298670359318265 8:0.378788 9:1 18:0.90909 102:1 154:0.90909 
-0.001083173185185264 22:0.590909 42:0.90909 52:0.818182 70:0.90909 161:0.666664 
-0.1483234561248298 22:0.590909 42:0.90909 52:0.818182 70:0.90909 161:0.666664 
-0.4557866250546343 108:1 
-2 152:1 
-2 46:0.590909 56:0.545453 85:0.30303 111:0.545453 
-2 8:0.595238 64:0.124999 74:0.517855 77:0.12857 82:0.595238 83:0.321426 87:0.12857 
-2 10:0.29 64:0.35 90:0.650001 118:0.35 
-1.052964045269811 34:0.232804 49:0.222222 69:0.444446 73:0.444446 90:0.240741 102:0.407407 105:0.135802 116:0.0802469 119:0.148148 131:0.407407 143:0.259259 151:0.37037 
-0.9146124320393808 34:0.857142 36:1 
-0.09289467622792461 39:0.625 72:0.53125 76:0.0698529 87:0.225 108:0.270834 163:0.687501 
-2 39:0.625 72:0.53125 76:0.0698529 87:0.225 108:0.270834 163:0.687501 
-0.8461505284378236 42:0.58824 88:0.176472 89:0.205884 99:0.764713 104:0.58824 145:0.705891 148:0.372551 
-0.2735538382465002 1:0.136 11:0.24 13:0.22 19:0.44 22:0.26 53:0.133333 65:0.14 83:0.36 85:0.133333 88:0.12 128:0.34 140:0.4 142:0.44 
-0.7304984526222998 30:0.846154 33:0.846154 34:0.241758 90:0.5 
-0.3827600811043465 18:0.71429 27:0.71429 67:0.71429 68:0.71429 72:0.607147 98:0.71429 131:0.78572 141:1 
-0.00510580845331197 8:0.297621 43:0.678577 55:0.523811 68:0.71429 72:0.607147 75:0.464289 82:0.297621 84:0.571432 106:0.39286 128:0.607147 
-0.1087331324669169 8:0.297621 43:0.678577 55:0.523811 68:0.71429 72:0.607147 75:0.464289 82:0.297621 84:0.571432 106:0.39286 128:0.607147 
-1.192465730138999 9:0.78572 30:0.78572 71:0.607147 106:0.39286 115:0.207144 130:0.678577 143:0.500004 
-2 76:0.131488 77:0.847058 85:0.19608 87:0.847058 88:0.529414 
-2 27:0.55556 64:0.194446 77:0.200001 80:0.527783 85:0.185187 87:0.399999 90:0.361114 133:0.611117 
-0.2167455609709542 4:0.55556 25:0.666675 29:0.611117 52:1 68:0.55556 98:0.55556 147:0.666675 152:0.361114 
-1.309948406330463 22:0.361114 90:0.361114 99:0.722229 129:0.500005 130:0.527783 133:0.611117 
-1.87029235781956 5:0.500005 7:0.444448 56:0.333335 72:0.472226 113:0.55556 115:0.161112 
-1.814081742441691 11:0.333335 42:0.55556 53:0.185187 57:0.555555 61:0.166668 65:0.194446 89:0.194446 118:0.194446 120:0.611111 124:0.083334 125:0.305558 128:0.472226 149:0.666675 
-0.07879211884695257 1:0.18889 17:0.666675 48:0.388892 53:0.185187 75:0.722222 77:0.200001 88:0.166668 90:0.361114 129:1 145:0.666675 
-0.9746742870765648 1:0.178949 2:0.631587 6:0.578953 12:0.578953 18:0.52632 75:0.342108 88:0.157896 89:0.184212 100:0.368424 117:0.631577 161:0.385967 
-2 4:0.5 64:0.175 77:0.36 82:0.208333 85:0.166667 90:0.325 133:0.550001 
-0.2344950855172779 11:0.260867 44:0.260867 48:0.304346 52:0.782614 53:0.144927 68:0.86957 74:0.126086 75:0.282607 76:0.0971872 80:0.413042 87:0.313045 140:0.43478 144:0.246375 
-1.906493837984406 2:0.57143 29:0.52381 106:0.261905 126:0.47619 136:0.47619 157:0.333333 162:0.57143 
-2 20:0.333336 57:0.208335 72:0.35417 82:0.173613 103:0.500006 115:0.120834 129:0.375003 140:0.41667 
-0.413874169138727 13:0.687501 15:0.270836 16:0.458337 17:1 40:0.541672 53:0.13889 66:0.291669 83:0.375003 84:0.333336 101:0.35417 129:0.375003 
-0.6489605618419072 1:0.136 5:0.36 8:0.333333 11:0.24 28:0.4 48:0.28 52:0.36 56:0.24 68:0.4 77:0.144 79:0.226666 82:0.166667 85:0.133333 90:0.26 91:0.4 92:0.2 132:0.300001 157:0.28 
-1.490987150065581 8:0.166667 26:0.4 46:0.26 53:0.133333 74:0.116 76:0.0447059 79:0.226666 80:0.380001 82:0.166667 85:0.133333 120:0.22 137:0.300001 148:0.253333 149:0.960004 157:0.28 
-2 7:0.32 48:0.28 52:0.36 53:0.133333 68:0.4 72:0.34 78:0.2 80:0.380001 82:0.166667 87:0.144 120:0.22 138:0.44 140:0.4 
-0.3248453695841161 1:0.523076 5:0.346158 8:0.160258 11:0.230772 28:0.38462 54:0.250003 57:0.19231 92:0.19231 96:0.38462 101:0.326927 115:0.11154 140:0.38462 150:0.38462 
-0.6636523850287983 42:0.38462 44:0.230772 50:0.269234 54:0.250003 76:0.0859727 77:0.138463 80:0.36539 82:0.160258 84:0.307696 91:0.38462 112:0.326927 133:0.423082 145:0.92308 
-0.4554010846113288 1:0.130771 3:0.38462 5:0.346158 8:0.320513 11:0.230772 48:0.269234 58:0.423082 68:0.38462 72:0.326927 74:0.11154 76:0.0429869 85:0.128207 86:0.134617 87:0.138463 145:0.92308 
-1.046098911595262 34:0.120881 35:0.500007 37:0.846154 88:0.115386 89:0.134617 99:0.500007 110:0.423082 113:0.38462 116:0.250001 123:0.346158 124:0.230769 
-0.5367987777222241 1:0.503703 5:0.333333 8:0.308642 11:0.222222 37:0.407407 48:0.259259 49:0.222222 53:0.123457 74:0.107407 85:0.246913 92:0.185185 99:0.481481 145:0.444446 150:0.37037 159:0.277778 
-2 27:0.37037 30:0.407407 46:0.240741 56:0.222222 68:0.37037 74:0.107407 113:0.37037 117:0.444443 119:0.296296 
-0.2184813921196338 10:0.10357 11:0.214284 39:0.35714 40:0.464282 44:0.214284 55:0.261902 72:0.303569 80:0.339284 84:0.571432 91:0.35714 101:0.303569 110:0.392854 117:0.214284 124:0.053571 133:0.392854 137:0.267856 148:0.226188 
-0.3375511232317795 5:0.321426 15:0.232141 21:0.619049 22:0.464289 49:0.214284 58:0.392854 59:0.214284 66:0.249998 85:0.119047 129:0.321426 138:0.392854 139:0.66667 143:0.249998 146:0.196427 151:0.35714 
-2 57:0.17857 117:0.214284 124:0.535714 125:0.39286 126:0.35714 153:0.392854 
-0.725232498381968 7:0.551728 36:0.379313 52:0.310347 72:0.293106 75:0.22414 76:0.0770796 77:0.124139 78:0.172415 79:0.195403 90:0.22414 101:0.293106 119:0.137932 128:0.293106 131:0.379313 136:0.34483 
-2 1:0.117242 5:0.310347 50:0.241381 53:0.114943 69:0.413798 74:0.100001 75:0.22414 77:0.124139 79:0.195403 150:0.34483 
-2 7:0.8 71:0.85 89:0.700001 108:0.433334 112:0.85 115:0.29 121:0.34 
-0.5091364142217257 24:0.812501 33:0.687501 34:0.196428 67:0.625 89:0.21875 104:0.625 106:0.34375 130:0.593751 137:0.468751 151:0.625 
-0.2298296523202671 28:0.625 33:0.687501 96:0.625 104:0.625 130:0.593751 137:0.468751 147:0.750003 151:0.625 
-0.04442943646080955 44:0.799996 55:0.48889 67:0.66667 72:0.56667 75:0.433336 85:0.222223 88:0.200001 90:0.433336 106:0.366669 
-2 35:0.520001 44:0.24 76:0.0447059 79:0.226666 90:0.26 98:0.4 104:0.4 144:0.226666 
-2 3:0.38462 10:0.11154 25:0.461546 53:0.128207 56:0.230772 77:0.138463 84:0.307696 85:0.128207 88:0.115386 90:0.250003 112:0.326927 124:0.057693 128:0.326927 132:0.288466 
-0.292931334051872 44:0.24 77:0.144 80:0.380001 81:0.22 84:0.32 87:0.144 99:0.520001 146:0.22 152:0.520001 153:0.44 
-0.5238341084604014 5:0.900001 28:1 94:1 96:1 128:0.85 151:1 
-0.6329608743586895 21:0.481484 24:0.722229 42:0.55556 53:0.185187 83:0.500005 92:0.27778 106:0.305558 122:0.611117 148:0.351854 164:0.222224 
-0.7263650802694573 27:0.90909 42:0.90909 95:1 
-0.09183242667028334 4:0.83333 31:1 42:0.83333 147:1 
-0.3456935574464164 27:0.83333 42:0.83333 95:0.916664 97:1 134:0.83333 
-1.371595522446513 54:1 
-0.534656835574978 18:0.35714 30:0.392854 42:0.35714 53:0.119047 57:0.17857 68:0.35714 85:0.119047 89:0.124999 90:0.232141 94:0.35714 102:0.392854 119:0.142856 121:0.121427 124:0.107143 132:0.535719 
-0.6377440964237605 11:0.428573 55:0.523811 68:0.71429 107:0.71429 128:0.607147 135:0.71429 154:0.71429 
-2 4:0.58824 90:0.382356 125:0.323532 128:0.500004 132:0.441181 
-1.381430449882393 33:0.392854 41:0.249998 44:0.214284 49:0.214284 50:0.249998 80:0.339284 84:0.285712 89:0.124999 107:0.35714 110:0.392854 123:0.321426 124:0.053571 125:0.196427 132:0.267856 143:0.249998 153:0.392854 
-1.559117998853707 3:0.83333 24:0.541672 30:0.458337 87:0.150001 90:0.270836 110:0.458337 116:0.0902786 135:0.41667 
-1.765365690262976 9:0.379313 33:0.379313 38:0.34483 72:0.293106 88:0.103449 102:0.379313 104:0.34483 116:0.0747132 121:0.117242 126:0.34483 130:0.327589 143:0.241381 151:0.34483 
-0.9884457846003842 10:0.138095 13:0.261905 16:0.52381 20:0.380952 27:0.47619 71:0.404762 83:0.428571 90:0.309524 114:0.714281 120:0.261905 121:0.161904 122:0.52381 131:0.52381 149:0.57143 
-1.74232903814385 49:0.333335 52:0.500005 72:0.472226 85:0.185187 90:0.361114 132:0.416671 137:0.416671 
-2 8:0.320513 11:0.461537 74:0.223076 76:0.0859727 82:0.320513 87:0.276923 88:0.230769 145:0.92308 
-0.4322462951131041 3:0.58824 14:0.647065 24:0.764713 57:0.29412 59:0.352943 66:0.411768 83:0.529417 85:0.19608 105:0.215688 
-0.004926995640901144 31:0.42857 36:0.392854 38:0.35714 58:0.392854 87:0.12857 98:0.35714 101:0.303569 115:0.10357 124:0.053571 131:0.392854 135:0.35714 143:0.249998 152:0.232141 
-0.04625077632981223 31:0.42857 36:0.392854 38:0.35714 58:0.392854 87:0.12857 98:0.35714 101:0.303569 115:0.10357 124:0.053571 131:0.392854 135:0.35714 143:0.249998 152:0.232141 
-0.2553162157354858 3:0.76923 24:1 25:0.92308 30:0.846154 41:0.538462 50:0.538462 98:0.76923 128:0.653846 135:0.76923 147:0.92308 
-0.154590741105991 13:0.229169 19:0.458337 22:0.270836 32:0.458337 58:0.458337 73:0.500006 89:0.145835 90:0.270836 103:0.500006 111:0.250001 123:0.375003 131:0.458337 144:0.236112 146:0.229169 161:0.305557 
-0.2703340214847387 3:1 47:1 53:0.333333 107:1 
-0.494173020334256 11:0.461537 51:0.384615 57:0.384615 58:0.846154 64:0.269231 85:0.25641 111:0.461537 121:0.261538 142:0.846154 149:0.92308 
-2 105:0.366667 119:0.4 
-1.448773320505579 13:0.5 21:0.787875 130:0.863637 164:0.363636 
-0.3138037193416023 2:0.750003 13:0.687501 15:0.40625 23:1 39:0.625 42:0.625 103:0.750003 151:0.625 
-0.2473340270532392 13:0.733332 17:0.800007 19:0.733338 30:0.733338 83:0.600004 103:0.800007 129:0.600004 
-0.110184840674653 2:0.750003 13:0.34375 15:0.40625 18:0.625 21:0.541665 66:0.4375 102:0.687501 133:0.687501 150:0.625 
-0.2283451869287859 8:0.277779 31:0.800007 101:0.56667 125:0.366669 137:1 145:0.800007 
-0.5820418875834229 13:1 16:1 32:1 70:0.90909 104:0.90909 119:0.363636 
-0.4655574548202971 13:0.275 18:0.5 19:0.550001 36:0.550001 43:0.475001 79:0.283333 104:0.5 112:0.425 139:0.466666 142:0.550001 
-0.3884730924451348 13:0.846154 17:0.92308 18:0.76923 40:1 44:0.461537 45:0.692308 99:1 139:0.717947 
-2 37:0.392854 50:0.249998 63:0.11111 87:0.257144 88:0.107142 99:0.464282 106:0.196427 133:0.392854 
-1.729158482446473 53:0.19608 87:0.211766 88:0.176472 105:0.215688 149:0.705891 150:0.58824 
-2 1:0.755554 10:0.161112 115:0.161112 
-1.309167011717441 8:0.154321 28:0.37037 48:0.259259 53:0.123457 85:0.123457 88:0.222222 90:0.240741 95:0.407407 101:0.314815 130:0.351852 136:0.74074 
-0.1057704238716826 4:1 26:1 41:0.700001 50:0.700001 53:0.333333 140:1 
-0.1726334892483335 50:0.700001 52:0.900001 67:1 85:0.333333 106:0.550001 132:0.750002 
-2 5:0.310347 11:0.206898 53:0.114943 55:0.252875 65:0.120691 85:0.114943 88:0.103449 101:0.293106 125:0.189657 128:0.293106 130:0.327589 149:0.413798 
-1.563951503739004 47:1 53:0.333333 
-1.183869066986317 47:1 104:1 107:1 
-2 53:0.166667 63:0.155555 69:0.600002 78:0.25 101:0.425 118:0.175 120:0.275 143:0.35 149:0.600002 
-0.1027621372301998 16:0.611117 29:0.611117 57:0.27778 68:0.55556 76:0.062092 99:0.722229 102:0.611117 154:0.55556 
-0.2785394493651041 5:0.749998 23:0.666664 32:0.916664 90:0.541665 131:0.916664 157:0.583332 161:0.611107 
-1.934557689307494 3:0.38462 10:0.11154 15:0.250003 19:0.423082 34:0.120881 48:0.269234 57:0.384615 82:0.320513 83:0.346158 104:0.38462 117:0.230772 124:0.057693 161:0.282054 
-0.5533213899902214 5:0.375003 24:0.541672 33:0.458337 46:0.270836 48:0.291669 52:0.375003 80:0.395837 111:0.250001 117:0.250001 136:0.41667 147:0.500006 162:0.500006 
-0.5315116323127485 47:0.76923 53:0.25641 76:0.0859727 115:0.223076 130:0.73077 
-0.532352885365974 98:1 137:0.750002 150:1 
-0.05413484463030323 13:0.458332 15:0.541665 59:0.499997 77:0.299999 83:0.749998 103:1 146:0.458332 
-0.2283179743182326 13:0.785714 16:0.78572 19:0.78572 21:0.619049 70:0.71429 91:0.71429 103:0.857151 107:0.71429 146:0.39286 
-0.07361322471192708 13:0.211541 17:0.461546 21:0.333336 22:0.250003 48:0.269234 57:0.19231 61:0.115386 75:0.750003 97:0.461546 103:0.461546 121:0.130771 129:0.346158 143:0.269234 
-0.7682124684250329 13:0.22 17:0.480002 21:0.693331 22:0.26 56:0.24 75:0.520001 77:0.144 97:0.480002 117:0.24 124:0.06 129:0.720001 136:0.4 140:0.4 
-0.3371533102716177 13:0.211541 17:0.461546 21:1 48:0.269234 57:0.19231 58:0.423082 75:0.250003 77:0.138463 97:0.461546 129:0.346158 132:0.576924 149:0.461546 
-0.3591214216738198 2:0.666675 13:0.305558 21:0.481484 24:0.722229 32:0.611117 71:0.472226 135:0.55556 146:0.305558 150:0.55556 
-1.275465060956773 1:0.261538 7:0.615384 8:0.320513 69:0.92308 74:0.223076 157:0.538462 
-1.311613554815943 34:0.196428 44:0.374999 50:0.4375 59:0.374999 78:0.3125 85:0.208333 104:0.625 115:0.18125 132:0.468751 
-2 8:0.347221 34:0.261904 84:0.666664 128:0.708331 
-2 1:0.121427 36:0.392854 40:0.464282 57:0.17857 74:0.10357 79:0.202379 80:0.339284 105:0.130951 137:0.267856 148:0.226188 154:0.35714 157:0.249998 159:0.267856 
-0.01274766039565458 4:0.58824 28:0.58824 42:0.58824 53:0.19608 78:0.29412 80:0.558829 97:0.705891 154:0.58824 
-0.4537729455319947 4:0.58824 28:0.58824 42:0.58824 53:0.19608 78:0.29412 80:0.558829 97:0.705891 154:0.58824 
-0.1182781542912146 27:1 53:1 85:1 88:0.3 
-0.713500840781202 53:0.60606 85:0.30303 88:0.272727 91:0.90909 107:0.90909 151:0.90909 
-0.3923301746430653 11:0.461537 47:0.76923 50:0.538462 58:0.846154 74:0.223076 76:0.0859727 105:0.282051 143:0.538462 151:0.76923 
-0.8105315414086476 26:0.90909 60:1 64:0.318182 121:0.30909 154:0.90909 
-0.2458582328807347 101:0.500004 105:0.215688 130:0.558829 163:0.647065 
-2 17:0.750003 53:0.208333 74:0.18125 83:0.562501 88:0.1875 105:0.229167 156:0.687501 
-1.856927839734025 20:0.285712 22:0.232141 31:0.42857 53:0.119047 64:0.124999 74:0.10357 75:0.232141 76:0.0399156 83:0.321426 87:0.12857 139:0.33333 
-0.4130739529824357 42:1 53:0.333333 57:0.5 70:1 126:1 132:0.750002 
-0.414026909157013 54:0.650001 70:1 132:0.750002 
-0.6378600325685804 4:0.83333 39:0.83333 53:0.277777 58:0.916664 84:0.666664 132:0.624999 
-0.7628510939608881 53:0.30303 72:0.772727 126:0.90909 134:0.90909 140:0.90909 
-0.6161089790211399 30:0.846154 73:0.92308 107:0.76923 135:0.76923 147:0.92308 
-1.378639635366339 73:0.42857 76:0.0399156 79:0.202379 86:0.124999 87:0.12857 101:0.607147 120:0.196427 124:0.053571 131:0.392854 143:0.249998 147:0.857151 
-0.07306900275171943 2:0.750003 13:0.687501 19:0.687501 22:0.40625 66:0.4375 141:0.874995 
-2 70:0.76923 108:0.333333 
-0.4283943007564268 14:1 15:0.295458 24:0.590916 32:0.500006 49:0.272729 69:0.545462 129:0.409095 137:0.340913 139:0.424246 
-0.7795647937232656 7:0.36364 42:0.45455 44:0.272729 48:0.318185 82:0.189396 107:0.45455 113:0.45455 121:0.154547 135:0.45455 142:0.500006 
-1.118854697195119 29:0.687501 36:0.687501 89:0.21875 99:0.812501 144:0.354166 
-1.298162734849718 29:0.458337 59:0.250001 87:0.150001 101:0.708331 120:0.229169 121:0.141668 132:0.312503 135:0.41667 136:0.41667 
-2 25:0.545462 38:0.45455 57:0.454545 65:0.159093 89:0.159093 100:0.318185 104:0.45455 117:0.272729 121:0.154547 124:0.204546 132:0.340913 156:0.500006 
-0.3970586786763398 11:0.214284 36:0.392854 44:0.214284 48:0.249998 53:0.119047 59:0.214284 75:0.232141 82:0.148808 84:0.285712 87:0.12857 88:0.214287 91:0.35714 95:0.392854 100:0.249998 117:0.214284 135:0.71429 
-0.9652244022318919 29:0.44 30:0.880001 60:0.44 63:0.124444 65:0.14 67:0.4 80:0.380001 87:0.144 121:0.136 124:0.06 133:0.44 135:0.4 162:0.480002 
-2 5:0.409095 10:0.131819 58:0.500006 85:0.151517 106:0.5 123:0.409095 151:0.90909 
-0.2748595107504127 13:1 18:0.90909 19:1 77:0.327272 83:0.818182 88:0.272727 
-0.5645272877199101 8:0.320513 48:0.538462 53:0.25641 55:0.5641 85:0.25641 88:0.230769 91:0.76923 149:0.92308 
-1.017430842695155 96:1 113:1 125:0.550001 134:1 
-0.6241037147015281 46:0.650001 50:0.700001 72:0.85 93:1 111:0.599999 123:0.900001 136:1 
-0.6056726791985829 9:1 53:0.30303 57:0.454545 85:0.30303 89:0.318182 105:0.333333 121:0.30909 134:0.90909 
-0.2458316844307185 8:0.378788 33:1 42:0.90909 58:1 84:0.727272 131:1 
-0.8542248937334274 7:0.347824 15:0.282607 21:0.376808 33:0.478258 66:0.304346 77:0.156521 81:0.239129 83:0.391302 91:0.43478 116:0.0942024 126:0.43478 136:0.43478 142:0.478258 157:0.304346 
-0.4365173343675838 13:0.916669 17:1 22:0.541665 80:0.791665 103:1 129:0.749998 152:0.541665 
-1.001542678470301 46:0.325 56:0.299999 93:0.5 104:0.5 127:0.108333 141:0.699996 163:0.550001 
-0.263457738152887 8:0.297621 13:0.785714 19:0.78572 40:0.928578 46:0.464289 83:0.642862 107:0.71429 164:0.285716 
-1.238333196604614 8:0.148808 16:0.392854 38:0.35714 91:0.71429 101:0.303569 112:0.303569 128:0.303569 129:0.321426 142:0.392854 144:0.202379 145:0.42857 
-2 5:0.310347 42:0.34483 46:0.22414 48:0.241381 51:0.172415 56:0.206898 57:0.172415 78:0.172415 101:0.293106 120:0.189657 124:0.0517245 127:0.0747132 132:0.517246 
-2 38:0.52632 48:0.368424 78:0.26316 89:0.184212 110:0.578953 117:0.315791 120:0.289476 125:0.289476 136:0.52632 
-0.1777901511165134 12:0.423082 13:0.211541 15:0.5 16:0.423082 31:0.461546 42:0.38462 66:0.269234 67:0.38462 76:0.0429869 119:0.153848 135:0.38462 143:0.269234 144:0.217951 161:0.5641 162:0.461546 
-0.3819680830395229 32:0.78572 45:0.642862 80:0.678577 89:0.250002 99:0.928578 148:0.452383 153:0.78572 
-2 1:0.679999 8:0.166667 9:0.44 115:0.232 128:0.34 131:0.44 137:0.300001 
-0.02332235181583787 1:0.566667 8:0.173613 9:0.458337 23:0.333336 32:0.458337 36:0.458337 95:0.458337 104:0.41667 115:0.120834 116:0.0902786 128:0.35417 129:0.375003 131:0.458337 145:0.500006 
-0.412654344067973 5:0.36 19:0.44 30:0.44 42:0.4 50:0.28 54:0.26 57:0.2 96:0.4 117:0.24 133:0.44 
-0.1905696629850956 24:0.619048 41:0.333333 49:0.285713 51:0.238095 60:0.52381 91:0.47619 101:0.404762 119:0.190476 132:0.357143 150:0.47619 
-2 21:0.866664 100:0.700001 121:0.34 124:0.15 135:1 
-0.8912639765230345 43:0.791665 71:0.708331 101:0.708331 121:0.283332 131:0.916664 135:0.83333 136:0.83333 
-0.9427546552330739 12:0.550001 28:0.5 44:0.299999 50:0.35 66:0.35 84:0.4 85:0.166667 87:0.18 88:0.3 159:0.375001 
-1.085296601291661 8:0.378788 82:0.378788 91:0.90909 95:1 106:0.5 
-1.249559962710846 10:0.18125 43:0.593751 50:0.4375 52:0.562501 68:0.625 71:0.53125 81:0.34375 120:0.687501 128:0.53125 
-2 3:0.41667 10:0.120834 76:0.046569 82:0.347221 87:0.150001 88:0.125001 89:0.145835 112:0.35417 120:0.229169 123:0.375003 
-0.6095343116856721 38:0.58824 70:0.58824 99:0.764713 131:0.647065 
-0.4927129846075445 10:0.10357 30:0.392854 37:0.392854 41:0.249998 82:0.148808 88:0.107142 89:0.124999 100:0.249998 113:0.35714 115:0.10357 116:0.0773804 119:0.142856 126:0.71429 137:0.267856 142:0.392854 149:0.42857 
-2 10:0.10357 30:0.392854 37:0.392854 41:0.249998 82:0.148808 88:0.107142 89:0.124999 100:0.249998 113:0.35714 115:0.10357 116:0.0773804 119:0.142856 126:0.71429 137:0.267856 142:0.392854 149:0.42857 
-0.05710872933782709 4:0.71429 5:0.642862 29:0.78572 30:0.78572 41:1 50:1 82:0.297621 132:0.535719 
-2 8:0.287358 16:0.379313 48:0.241381 82:0.143679 88:0.103449 90:0.22414 91:0.34483 97:0.413798 112:0.293106 129:0.310347 140:0.34483 145:0.413798 
-0.1622691796776041 53:0.333333 84:0.8 101:0.85 107:1 
-0.3924312636380032 15:0.232141 17:0.857151 23:0.285712 32:0.78572 52:0.321426 53:0.119047 66:0.249998 79:0.202379 85:0.119047 150:0.35714 163:0.392854 
-2 46:0.382356 50:0.411768 55:0.431375 105:0.215688 117:0.352943 
-0.01560563518708136 25:0.800007 36:0.733338 46:0.433336 77:0.240001 93:0.66667 127:0.144445 131:0.733338 141:0.933332 159:0.500004 
-0.008802712585130507 35:1 46:0.5 59:0.461537 117:0.461537 127:0.166667 149:0.92308 
-0.874433973702703 35:1 46:0.5 59:0.461537 117:0.461537 127:0.166667 149:0.92308 
-0.608426012455314 3:0.90909 51:0.454545 65:0.318182 82:0.378788 88:0.272727 127:0.19697 132:0.681819 142:1 
-0.6766478454013115 53:0.277777 58:0.916664 90:0.541665 108:0.36111 113:0.83333 128:0.708331 132:0.624999 140:0.83333 
-1.481189785603341 2:0.500006 14:0.458337 15:0.270836 26:0.41667 27:0.41667 44:0.250001 55:0.305557 79:0.236112 82:0.173613 84:0.333336 106:0.458332 142:0.458337 
-0.1368835926889842 4:0.58824 5:0.529417 28:0.58824 48:0.411768 49:0.352943 82:0.2451 89:0.205884 90:0.382356 106:0.323532 
-1.050980068839883 44:0.599999 54:0.650001 107:1 121:0.34 
-0.4118548876320888 4:1 26:1 39:1 42:1 53:0.333333 55:0.733331 65:0.35 117:0.599999 
-0.687266965157509 18:0.5 24:0.650001 30:0.550001 40:0.650001 44:0.299999 92:0.25 101:0.425 112:0.425 123:0.45 124:0.075 130:0.475001 
-2 8:0.189396 44:0.272729 62:0.107439 81:0.250003 82:0.189396 86:0.159093 88:0.409092 90:0.295458 93:0.45455 138:0.500006 
-1.015702906156918 3:0.41667 24:0.541672 25:0.500006 31:0.500006 33:0.458337 49:0.250001 121:0.141668 124:0.0625005 126:0.41667 147:0.500006 
-1.17040023371732 5:0.36 12:0.880001 32:0.44 66:0.28 69:0.480002 116:0.0866668 124:0.06 143:0.28 144:0.226666 161:0.586665 
-1.093557197434745 1:0.136 2:0.480002 3:0.4 11:0.24 20:0.32 30:0.44 44:0.24 73:0.480002 84:0.32 124:0.06 136:0.4 145:0.480002 
-0.3506299736333725 2:0.631587 13:0.578947 14:0.578953 21:0.456142 24:0.684217 32:0.578953 34:0.330826 78:0.26316 103:0.631587 128:0.447372 
-0.7507551842210091 8:0.320513 13:0.423077 83:0.692308 88:0.461538 91:0.76923 128:0.653846 
-0.8960903155470511 8:0.260417 20:1 89:0.21875 103:0.750003 110:0.687501 
-1.602726454810381 5:0.818182 48:0.636364 89:0.318182 106:0.5 125:0.5 128:0.772727 
-1.454873188478359 1:0.30909 82:0.378788 88:0.272727 101:0.772727 137:0.681819 
-0.9774661252441461 25:0.413798 59:0.206898 71:0.293106 75:0.22414 76:0.0385398 95:0.379313 108:0.149426 134:0.68966 138:0.379313 153:0.379313 157:0.241381 
-0.5482565481417059 93:1 151:1 154:1 
-2 38:0.52632 100:0.368424 101:0.447372 107:0.52632 119:0.210528 124:0.078948 
-2 3:0.34483 24:0.448279 36:0.379313 40:0.448279 41:0.241381 51:0.172415 76:0.0385398 81:0.189657 148:0.218392 155:0.293106 164:0.137932 
-0.5599700566845735 53:0.333333 55:0.733331 70:1 105:0.366667 111:0.599999 
-1.132024051602399 28:0.83333 38:0.83333 63:0.259258 76:0.0931369 80:0.791665 
-2 15:0.464289 34:0.336735 56:0.214284 57:0.17857 64:0.124999 77:0.257144 83:0.642862 88:0.107142 118:0.124999 120:0.196427 130:0.339284 136:0.35714 159:0.267856 
-2 53:0.151517 88:0.545455 89:0.159093 91:0.45455 106:0.5 109:0.18182 121:0.154547 132:0.340913 
-0.6801579264799369 15:0.232141 47:0.35714 50:0.249998 65:0.124999 83:0.321426 91:0.35714 93:0.35714 98:0.35714 107:0.35714 112:0.303569 113:0.35714 117:0.214284 118:0.124999 121:0.121427 137:0.267856 146:0.196427 147:0.42857 164:0.142856 
-0.3306532398482927 28:0.83333 30:0.916664 33:0.916664 34:0.261904 41:0.583332 96:0.83333 131:0.916664 145:1 
-1.785146090596905 25:1 76:0.0931369 115:0.241665 
-1.088490343788842 2:0.631587 3:0.52632 20:0.421056 27:0.52632 38:0.52632 66:0.368424 78:0.26316 79:0.298247 82:0.2193 105:0.192984 113:0.52632 115:0.305262 
-0.3966114161987004 10:0.116 28:0.4 31:0.480002 42:0.4 46:0.26 48:0.28 128:0.34 130:0.380001 132:0.300001 
-0.1833158409727728 13:1 20:0.727272 23:0.727272 47:0.90909 152:0.590909 
-0.008670041437283173 1:0.377777 8:0.462963 11:0.333335 12:0.611117 80:0.527783 82:0.231483 83:0.500005 128:0.472226 
-1.841603204235884 1:0.377777 8:0.462963 11:0.333335 12:0.611117 80:0.527783 82:0.231483 83:0.500005 128:0.472226 
-0.4564578620876564 18:0.37037 55:0.271604 59:0.222222 71:0.314815 105:0.135802 117:0.222222 121:0.125926 146:0.203704 150:0.37037 153:0.814815 164:0.148148 
-1.544771321527906 53:0.238097 77:0.257144 93:0.71429 140:0.71429 
-2 2:0.600002 4:0.5 8:0.208333 11:0.299999 15:0.325 39:0.5 82:0.416667 85:0.166667 88:0.45 126:0.5 
-2 7:0.275864 11:0.206898 22:0.22414 69:0.413798 71:0.293106 80:0.327589 82:0.143679 109:0.137932 121:0.117242 146:0.189657 153:0.379313 164:0.137932 
-0.2437283467117857 1:0.161904 3:0.47619 8:0.198413 26:0.47619 36:0.52381 48:0.333333 59:0.285713 60:0.52381 85:0.15873 88:0.142857 89:0.166667 104:0.47619 131:0.52381 149:0.57143 
-1.364353476584709 10:0.193334 38:0.66667 88:0.200001 108:0.288891 114:1 121:0.226668 124:0.1 151:0.66667 
-0.2804182824045727 15:0.361114 23:0.444448 38:0.55556 57:0.27778 77:0.600001 83:1 90:0.361114 104:0.55556 120:0.305558 154:0.55556 
-1.487733211487827 8:0.396825 15:0.309524 23:0.380952 49:0.285713 50:0.333333 66:0.333333 120:0.261905 124:0.0714285 150:0.47619 
-1.691887698459063 54:0.650001 75:0.650001 87:0.36 
-2 44:0.315791 57:0.26316 65:0.184212 85:0.17544 115:0.152633 121:0.178949 125:0.289476 136:0.52632 141:0.736844 143:0.368424 
